{
  "net.0.weight": [
    [
      0.5778696537017822,
      0.8630657196044922,
      -0.13198921084403992
    ],
    [
      0.6691298484802246,
      0.16119913756847382,
      0.21775531768798828
    ],
    [
      1.595347285270691,
      0.2015407681465149,
      0.6934821009635925
    ],
    [
      0.9769625663757324,
      1.294823169708252,
      0.2177610546350479
    ],
    [
      0.5422238707542419,
      0.411338746547699,
      0.3709583282470703
    ],
    [
      -0.03966293856501579,
      0.5906824469566345,
      0.15901729464530945
    ],
    [
      -0.26953014731407166,
      0.14716559648513794,
      -0.2660064101219177
    ],
    [
      -0.2616850435733795,
      -0.7628101706504822,
      0.5828043818473816
    ],
    [
      -0.4581376016139984,
      -0.32580268383026123,
      -0.0566488578915596
    ],
    [
      -0.3621494174003601,
      -0.3021738529205322,
      -0.66404128074646
    ],
    [
      0.6549335718154907,
      -0.4172098934650421,
      0.6080414652824402
    ],
    [
      0.05504671111702919,
      -0.348886102437973,
      0.5817625522613525
    ],
    [
      -0.09794291108846664,
      1.4796056747436523,
      -0.17242512106895447
    ],
    [
      -0.7974494695663452,
      1.5400996208190918,
      -0.38135066628456116
    ],
    [
      0.28406137228012085,
      1.099388599395752,
      0.4022344648838043
    ],
    [
      0.534151017665863,
      2.0677666664123535,
      0.05759555473923683
    ],
    [
      0.6130944490432739,
      -1.426924228668213,
      -0.5077537298202515
    ],
    [
      -0.26667317748069763,
      -0.36657556891441345,
      0.6705024838447571
    ],
    [
      0.18274010717868805,
      0.5644263625144958,
      0.27753010392189026
    ],
    [
      -0.037868618965148926,
      0.6712284088134766,
      -0.4208366572856903
    ],
    [
      -0.006855599116533995,
      -0.6061315536499023,
      0.4031639099121094
    ],
    [
      -0.19882920384407043,
      0.17690950632095337,
      -0.1202860176563263
    ],
    [
      0.4788496494293213,
      -0.34219658374786377,
      -0.3443305492401123
    ],
    [
      0.41792407631874084,
      2.3767411708831787,
      0.04943340644240379
    ],
    [
      0.872988760471344,
      -1.9709314107894897,
      -0.05610340088605881
    ],
    [
      -0.5618900060653687,
      -0.628673791885376,
      0.4852868616580963
    ],
    [
      0.2737438976764679,
      0.7451388835906982,
      -0.29365918040275574
    ],
    [
      -0.39358648657798767,
      0.3063294291496277,
      -0.23336756229400635
    ],
    [
      0.4478960335254669,
      0.1573314517736435,
      0.45998528599739075
    ],
    [
      -0.5198387503623962,
      -0.5372987389564514,
      0.08719845861196518
    ],
    [
      0.18839438259601593,
      0.0940585732460022,
      0.4948071539402008
    ],
    [
      0.7777820825576782,
      -2.2167856693267822,
      0.06250642240047455
    ],
    [
      0.6652057766914368,
      -0.13682471215724945,
      -0.11194703727960587
    ],
    [
      -2.087597131729126,
      2.463027000427246,
      -0.061835598200559616
    ],
    [
      -0.0762062668800354,
      -0.4190904498100281,
      0.013542711734771729
    ],
    [
      -0.39437729120254517,
      -0.48982203006744385,
      -0.31792521476745605
    ],
    [
      -0.5497426986694336,
      -0.564575731754303,
      0.8474137783050537
    ],
    [
      1.1408660411834717,
      -0.8882138133049011,
      -1.7613801956176758
    ],
    [
      -0.37918853759765625,
      -0.19217440485954285,
      0.09028089046478271
    ],
    [
      -0.5189371705055237,
      -0.3177770972251892,
      -0.3887833058834076
    ],
    [
      0.0019778585992753506,
      -0.061009880155324936,
      0.09258410334587097
    ],
    [
      0.6850491166114807,
      -1.8415695428848267,
      0.05722622945904732
    ],
    [
      -0.27078136801719666,
      -0.7303598523139954,
      0.7566436529159546
    ],
    [
      0.7723338007926941,
      0.24835987389087677,
      1.0068483352661133
    ],
    [
      -0.5433768033981323,
      0.3497847616672516,
      -0.1893518567085266
    ],
    [
      0.14491409063339233,
      -1.4107282161712646,
      -0.5861023664474487
    ],
    [
      0.22042052447795868,
      0.07325992733240128,
      0.3568461537361145
    ],
    [
      -0.46383219957351685,
      0.470475435256958,
      -0.4513148069381714
    ],
    [
      0.09471109509468079,
      0.8694009184837341,
      0.21660861372947693
    ],
    [
      0.6090510487556458,
      0.9710075855255127,
      -0.4631764590740204
    ],
    [
      0.14530014991760254,
      -0.24833333492279053,
      -0.06326884031295776
    ],
    [
      -0.6165227293968201,
      0.7600986361503601,
      -0.4863872826099396
    ],
    [
      0.372348815202713,
      0.35925474762916565,
      0.2553706765174866
    ],
    [
      -0.30958518385887146,
      0.6667343974113464,
      0.14732876420021057
    ],
    [
      -0.11902183294296265,
      -0.8215040564537048,
      0.4795001149177551
    ],
    [
      -0.12393825501203537,
      -0.17206628620624542,
      0.6941295862197876
    ],
    [
      0.12871956825256348,
      -0.3194342851638794,
      -0.2922194302082062
    ],
    [
      0.005064614117145538,
      0.587629497051239,
      -0.06499414891004562
    ],
    [
      -0.3294215500354767,
      -0.19770947098731995,
      -0.4313238561153412
    ],
    [
      0.28736037015914917,
      0.8099341988563538,
      -0.5205930471420288
    ],
    [
      0.16025222837924957,
      0.7347599267959595,
      0.19591639935970306
    ],
    [
      1.298389196395874,
      1.0101325511932373,
      0.3250032067298889
    ],
    [
      0.21588701009750366,
      -0.1014527976512909,
      -0.15288308262825012
    ],
    [
      0.08941788971424103,
      0.07083480060100555,
      -0.06872822344303131
    ],
    [
      0.4655011296272278,
      1.0331966876983643,
      -0.0034037972800433636
    ],
    [
      -0.1292669177055359,
      0.008424878120422363,
      -0.03447258472442627
    ],
    [
      0.19019879400730133,
      0.21669790148735046,
      -0.48292580246925354
    ],
    [
      0.5500767230987549,
      0.8169056177139282,
      0.49241703748703003
    ],
    [
      -0.02871602773666382,
      -0.34808778762817383,
      -0.35322582721710205
    ],
    [
      -0.8239927291870117,
      1.3170101642608643,
      -0.27802303433418274
    ],
    [
      0.4661693274974823,
      0.5869471430778503,
      -0.4990570843219757
    ],
    [
      -0.4170108735561371,
      -0.009380407631397247,
      0.7620546221733093
    ],
    [
      0.06839394569396973,
      -0.13738299906253815,
      0.39991992712020874
    ],
    [
      -0.24375969171524048,
      -0.22131934762001038,
      0.6190044283866882
    ],
    [
      0.7221494317054749,
      -1.3318121433258057,
      -0.3750409483909607
    ],
    [
      0.49267977476119995,
      0.8009838461875916,
      0.20887795090675354
    ],
    [
      -0.402571439743042,
      -0.5698100328445435,
      -0.468911737203598
    ],
    [
      0.5738034844398499,
      0.6966730356216431,
      0.5845319032669067
    ],
    [
      0.4239363372325897,
      0.4177214801311493,
      0.05098242312669754
    ],
    [
      -0.43907836079597473,
      -0.49465763568878174,
      -0.5400238037109375
    ],
    [
      0.2829982042312622,
      -0.20917542278766632,
      0.009271971881389618
    ],
    [
      -0.3322681188583374,
      -0.10520681738853455,
      -0.4063592553138733
    ],
    [
      -0.37724971771240234,
      0.1915132999420166,
      -0.17158642411231995
    ],
    [
      0.6954335570335388,
      -0.6534498929977417,
      -0.9434082508087158
    ],
    [
      -0.08016306161880493,
      -0.14818622171878815,
      -0.03572646528482437
    ],
    [
      -0.6460937261581421,
      0.32733434438705444,
      -0.38502243161201477
    ],
    [
      0.372657835483551,
      0.7115020751953125,
      0.5303689241409302
    ],
    [
      -0.5353648662567139,
      0.35326841473579407,
      -0.35829412937164307
    ],
    [
      0.2705732583999634,
      1.08647620677948,
      -0.022177690640091896
    ],
    [
      -0.004464924335479736,
      -0.1329236924648285,
      -0.48207855224609375
    ],
    [
      0.17222991585731506,
      -0.9689335823059082,
      0.6400878429412842
    ],
    [
      0.5658331513404846,
      1.0754846334457397,
      -0.0939221978187561
    ],
    [
      -3.902297258377075,
      2.2928764820098877,
      -0.7070280313491821
    ],
    [
      -0.574641764163971,
      -0.13104906678199768,
      -0.3460957705974579
    ],
    [
      -0.050497233867645264,
      -0.28417959809303284,
      -0.23600205779075623
    ],
    [
      -0.3166745901107788,
      -0.6636413931846619,
      0.7344053387641907
    ],
    [
      0.6026004552841187,
      0.1730455905199051,
      0.0221930630505085
    ],
    [
      -0.2356281280517578,
      -0.52138352394104,
      -0.5618451833724976
    ],
    [
      0.2145770788192749,
      -0.3169919550418854,
      -0.3711651861667633
    ],
    [
      -0.5358514785766602,
      0.0332525409758091,
      -0.04532277584075928
    ],
    [
      0.01855093240737915,
      -0.1224631667137146,
      -0.19878888130187988
    ],
    [
      -0.4698198139667511,
      0.5336987972259521,
      0.9475550055503845
    ],
    [
      -0.28155797719955444,
      0.34188520908355713,
      -0.10608818382024765
    ],
    [
      0.052390940487384796,
      1.074311375617981,
      0.335772842168808
    ],
    [
      -0.5471407771110535,
      0.5764027833938599,
      0.7117587924003601
    ],
    [
      0.18142522871494293,
      0.9057420492172241,
      0.6865620613098145
    ],
    [
      -0.06298016756772995,
      0.1932426542043686,
      -0.3160873353481293
    ],
    [
      -0.14394445717334747,
      0.8730142712593079,
      0.3898245394229889
    ],
    [
      -0.589070737361908,
      -0.04430408030748367,
      -0.20768719911575317
    ],
    [
      -0.5697740912437439,
      -0.4455059766769409,
      -0.1427772343158722
    ],
    [
      0.5126320719718933,
      0.22316555678844452,
      -0.382992148399353
    ],
    [
      -0.26024970412254333,
      3.1056759357452393,
      0.11434844881296158
    ],
    [
      -0.09080779552459717,
      0.4642121195793152,
      -0.20177358388900757
    ],
    [
      -0.08772660791873932,
      0.17610597610473633,
      -0.0270456001162529
    ],
    [
      -0.29273515939712524,
      -0.5146721601486206,
      -0.4667051136493683
    ],
    [
      -1.9556524753570557,
      2.79023814201355,
      -0.443316251039505
    ],
    [
      -0.4350535571575165,
      0.09886881709098816,
      0.11013638973236084
    ],
    [
      0.4340774714946747,
      0.8858592510223389,
      0.3705574572086334
    ],
    [
      -0.7130805850028992,
      -0.22295768558979034,
      0.528802216053009
    ],
    [
      -0.06013766676187515,
      -0.2173864096403122,
      0.751730740070343
    ],
    [
      -0.30087539553642273,
      -0.40356895327568054,
      -0.4462346136569977
    ],
    [
      0.07461443543434143,
      0.6115165948867798,
      0.2330399453639984
    ],
    [
      0.1141708493232727,
      -0.43785518407821655,
      -0.5391800403594971
    ],
    [
      0.060508061200380325,
      0.8821480870246887,
      0.3839326500892639
    ],
    [
      -0.3361530900001526,
      -0.07494497299194336,
      -0.4256131052970886
    ],
    [
      -0.2246740162372589,
      -0.03387458994984627,
      0.4639657437801361
    ],
    [
      0.5844895839691162,
      -0.6011767387390137,
      0.5649644732475281
    ],
    [
      -0.45280033349990845,
      0.17243430018424988,
      0.4431954324245453
    ]
  ],
  "net.0.bias": [
    1.713607668876648,
    2.197385311126709,
    -0.4229064881801605,
    -0.11034107208251953,
    1.999948263168335,
    1.645505428314209,
    -0.11818373203277588,
    1.2459076642990112,
    2.1555848121643066,
    1.9479119777679443,
    1.816396951675415,
    1.2777941226959229,
    -1.413691759109497,
    -0.9273415803909302,
    1.7940969467163086,
    -0.09249752014875412,
    1.2190649509429932,
    2.0501604080200195,
    1.7064088582992554,
    1.7405810356140137,
    1.5119965076446533,
    -0.5228424668312073,
    -0.5428578853607178,
    -0.08473282307386398,
    1.0207303762435913,
    1.8310846090316772,
    1.5542840957641602,
    -0.2258721888065338,
    2.2266502380371094,
    1.7773280143737793,
    2.0984389781951904,
    1.230049729347229,
    1.4404593706130981,
    0.09408679604530334,
    -0.3846741318702698,
    -0.37741619348526,
    1.6912648677825928,
    1.4582499265670776,
    -0.4328152537345886,
    1.9806252717971802,
    2.139814853668213,
    0.9926798343658447,
    1.532294511795044,
    -1.44976806640625,
    -0.2600950598716736,
    1.666845440864563,
    1.9440646171569824,
    -0.02454800345003605,
    -1.1825816631317139,
    2.052299737930298,
    -0.459801584482193,
    2.070495367050171,
    1.4338665008544922,
    1.8605951070785522,
    1.3410366773605347,
    1.7142341136932373,
    -0.1744743287563324,
    2.1377804279327393,
    -0.015009462833404541,
    2.1825077533721924,
    2.223623514175415,
    -0.1413901001214981,
    -0.4211822748184204,
    2.1549196243286133,
    2.1380457878112793,
    -0.4408342242240906,
    1.7150864601135254,
    -1.2805345058441162,
    -0.4726184010505676,
    -0.6374922394752502,
    1.8530371189117432,
    1.8065135478973389,
    1.486786961555481,
    2.204516649246216,
    0.5316488146781921,
    1.2995491027832031,
    -0.03268599510192871,
    1.8111392259597778,
    1.9155983924865723,
    -0.40823328495025635,
    1.8818895816802979,
    -0.2949576675891876,
    -0.479743629693985,
    0.8924993276596069,
    2.26527738571167,
    2.2361512184143066,
    2.1871469020843506,
    2.099581241607666,
    2.1179697513580322,
    -0.07727819681167603,
    1.132591724395752,
    1.986299991607666,
    0.3483022153377533,
    -0.3896339535713196,
    -0.1843675971031189,
    1.7003216743469238,
    1.9676285982131958,
    -0.22424805164337158,
    -0.3398089110851288,
    1.4531471729278564,
    -0.34030941128730774,
    -0.11235638707876205,
    1.9952173233032227,
    1.5513945817947388,
    2.223301410675049,
    2.2040014266967773,
    1.9136298894882202,
    1.8626039028167725,
    1.7417519092559814,
    0.009041786193847656,
    1.6908981800079346,
    1.6803086996078491,
    1.9171466827392578,
    2.2067203521728516,
    -0.14962556958198547,
    -0.26126644015312195,
    -0.18880119919776917,
    1.3807963132858276,
    1.7988098859786987,
    2.0985679626464844,
    2.0800130367279053,
    1.9695688486099243,
    -0.4248902499675751,
    1.4267346858978271,
    -0.1268504559993744,
    1.6995580196380615,
    1.6640663146972656,
    -0.5753752589225769
  ],
  "net.2.weight": [
    [
      0.027510404586791992,
      -0.06742900609970093,
      -0.055927254259586334,
      -0.07348452508449554,
      0.0770144984126091,
      -0.08369844406843185,
      0.06667723506689072,
      -0.002971343696117401,
      -0.010279461741447449,
      0.0552850142121315,
      -0.008169524371623993,
      0.05543311685323715,
      0.06390609592199326,
      -0.07673965394496918,
      0.03401041775941849,
      0.016685865819454193,
      0.01900453120470047,
      0.012903943657875061,
      0.0241769477725029,
      -0.04252070188522339,
      -0.01130850613117218,
      0.0839795395731926,
      0.05938366800546646,
      -0.0033206120133399963,
      -0.08313196897506714,
      0.003873862326145172,
      -0.06019012629985809,
      0.0718766525387764,
      -0.05365945026278496,
      -0.006381779909133911,
      -0.019617147743701935,
      0.01572904735803604,
      0.08317587524652481,
      0.008398592472076416,
      0.05119135230779648,
      0.06860894709825516,
      0.07135690003633499,
      -0.030525043606758118,
      -0.019768640398979187,
      0.0425976887345314,
      -0.024118326604366302,
      0.04138908535242081,
      -0.01930999755859375,
      -0.0599496029317379,
      0.035977885127067566,
      0.01355152577161789,
      0.039407797157764435,
      0.08781259506940842,
      0.060345642268657684,
      0.08379048854112625,
      0.004730790853500366,
      -0.07603276520967484,
      -0.06200683116912842,
      -0.0549045205116272,
      -0.07789208739995956,
      -0.044304437935352325,
      -0.08136746287345886,
      -0.08154843747615814,
      -0.052816860377788544,
      -0.08713622391223907,
      -0.054253868758678436,
      0.03370324522256851,
      0.0737205520272255,
      -0.02629224583506584,
      -0.025710292160511017,
      0.04719524830579758,
      -0.04360823705792427,
      -0.041792888194322586,
      0.05445867031812668,
      -0.07701291143894196,
      0.010807663202285767,
      0.0780806764960289,
      0.015157409012317657,
      0.02403666079044342,
      -0.05147659033536911,
      -0.0012194588780403137,
      0.004859983921051025,
      0.021693527698516846,
      0.0343429371714592,
      0.07680309563875198,
      -0.06746678054332733,
      0.002649463713169098,
      -0.044162023812532425,
      -0.06992083042860031,
      -0.007077932357788086,
      -0.07780268043279648,
      0.06168615072965622,
      0.010236680507659912,
      -0.047637611627578735,
      0.04618989676237106,
      -0.08365319669246674,
      -0.034188542515039444,
      -0.017219707369804382,
      -0.07510802149772644,
      -0.05620511993765831,
      -0.01442662626504898,
      0.06706594675779343,
      0.0853525772690773,
      0.05623818188905716,
      -0.05277880281209946,
      -0.05782552808523178,
      0.07713591307401657,
      0.031264498829841614,
      0.002348273992538452,
      0.011961780488491058,
      -0.0710374265909195,
      -0.029511582106351852,
      0.0850842222571373,
      -0.021799415349960327,
      -0.004433922469615936,
      -0.07339159399271011,
      -0.04944507032632828,
      -0.001804850995540619,
      -0.05490325391292572,
      -0.010961003601551056,
      0.035970449447631836,
      -0.08645947277545929,
      0.02625240385532379,
      -0.0584430955350399,
      -0.04313802719116211,
      0.033933140337467194,
      0.07027936726808548,
      -0.02415730059146881,
      -0.0362895205616951,
      -0.07992391288280487,
      -0.04557812958955765,
      -0.07739610224962234,
      -0.020229488611221313
    ],
    [
      -0.00010894487058976665,
      -0.10255877673625946,
      0.07044681906700134,
      0.02985542267560959,
      -0.1065579280257225,
      -0.06043296679854393,
      0.028828315436840057,
      -0.040157150477170944,
      -0.02638661116361618,
      -0.056708477437496185,
      0.05066259950399399,
      -0.06961111724376678,
      0.07313073426485062,
      -0.014082568697631359,
      -0.00234986562281847,
      0.040513403713703156,
      -0.03273538872599602,
      -0.07167018204927444,
      -0.03395546227693558,
      0.058052536100149155,
      -0.08599098026752472,
      0.02006242424249649,
      -0.0868673101067543,
      0.032057974487543106,
      0.014125034213066101,
      -0.018227916210889816,
      0.022630738094449043,
      9.941309690475464e-05,
      0.028611596673727036,
      -0.0699700266122818,
      -0.0334918238222599,
      0.02042369730770588,
      0.07014662027359009,
      0.045024268329143524,
      -0.06427374482154846,
      0.06797919422388077,
      -0.04306449368596077,
      -0.010251973755657673,
      -0.0803370252251625,
      -0.031083155423402786,
      0.04312088340520859,
      0.012325294315814972,
      -0.07376889884471893,
      0.010036488063633442,
      -0.028341226279735565,
      0.07075981050729752,
      -0.09680725634098053,
      -0.027919717133045197,
      -0.09553567320108414,
      -0.05245114490389824,
      0.02786421775817871,
      0.07545027881860733,
      -0.004394408781081438,
      0.07041379809379578,
      -0.002800968009978533,
      0.029729163274168968,
      0.07085759192705154,
      0.05509438365697861,
      -0.049473054707050323,
      0.06400321424007416,
      0.03371282294392586,
      -0.0469454750418663,
      -0.04217921569943428,
      -0.09303677082061768,
      0.0030109414365142584,
      -0.07164310663938522,
      0.0227276012301445,
      0.014400385320186615,
      -0.07679198682308197,
      -0.01743261143565178,
      -0.023853149265050888,
      0.0181038286536932,
      0.03081595152616501,
      -0.10898011922836304,
      0.08106084913015366,
      0.05518198758363724,
      0.035168275237083435,
      -0.10126495361328125,
      -0.05073821544647217,
      -0.02561572939157486,
      -0.04150942713022232,
      0.049844227731227875,
      0.03213540464639664,
      0.07001940160989761,
      -0.05224362388253212,
      0.016121862456202507,
      0.010978655889630318,
      -0.08116181939840317,
      -0.10482905805110931,
      -0.04586374759674072,
      0.03984102979302406,
      -0.10200938582420349,
      -0.07693620771169662,
      0.049515195190906525,
      0.0476880744099617,
      0.05132371187210083,
      -0.08579559624195099,
      -0.06469140946865082,
      0.045342035591602325,
      0.07686517387628555,
      0.05288618057966232,
      0.013846218585968018,
      0.011021819896996021,
      0.06420121341943741,
      -0.07883049547672272,
      -0.061019156128168106,
      0.045265667140483856,
      -0.08076151460409164,
      -0.048738446086645126,
      0.06452270597219467,
      0.01137976348400116,
      0.028555624186992645,
      -0.05477673187851906,
      -0.0203258004039526,
      0.08089590817689896,
      -0.06492386758327484,
      0.0006949305534362793,
      0.022209227085113525,
      -0.08211072534322739,
      0.06458781659603119,
      -0.06223239749670029,
      -0.04099493473768234,
      -0.023915261030197144,
      -0.07732529193162918,
      -0.08673235774040222,
      0.02740282192826271,
      0.0032892096787691116,
      -0.08278459310531616
    ],
    [
      -0.15214301645755768,
      -0.15674541890621185,
      0.3611115515232086,
      0.37353238463401794,
      -0.26907676458358765,
      -0.03924470394849777,
      -0.013342589139938354,
      -0.41129931807518005,
      -0.5118036270141602,
      -0.315631628036499,
      -0.32368311285972595,
      -0.32550597190856934,
      0.3771989941596985,
      0.32977789640426636,
      -0.09144444018602371,
      0.3901074230670929,
      -0.49271681904792786,
      -0.51192307472229,
      -0.09882614016532898,
      0.07751281559467316,
      -0.43778499960899353,
      0.08518002182245255,
      -0.03997344896197319,
      0.40682998299598694,
      -0.35617777705192566,
      -0.48428359627723694,
      0.08174382895231247,
      -0.08127069473266602,
      -0.3046668767929077,
      -0.9067859649658203,
      -0.3290818929672241,
      -0.2603994309902191,
      -0.30787622928619385,
      0.16580109298229218,
      -0.07892300933599472,
      0.05088219791650772,
      -0.4731711447238922,
      0.05193299427628517,
      0.012924402952194214,
      -0.6342666745185852,
      -0.21209636330604553,
      -0.05398695170879364,
      -0.49467357993125916,
      0.366952508687973,
      0.007629869505763054,
      -0.6517690420150757,
      -0.21254082024097443,
      0.013225891627371311,
      0.38201993703842163,
      -0.03871668130159378,
      -0.023088939487934113,
      0.2542077302932739,
      -0.11994864046573639,
      0.15479889512062073,
      -0.42076581716537476,
      -0.39891284704208374,
      -0.02555651217699051,
      -0.14385411143302917,
      0.05305059999227524,
      -0.15284673869609833,
      -0.1251538246870041,
      0.2993393540382385,
      0.05339621752500534,
      -0.2481958568096161,
      -0.21636945009231567,
      -0.048635322600603104,
      -0.1973467767238617,
      0.40662097930908203,
      -0.05926864594221115,
      0.4531160891056061,
      -0.08983264118432999,
      -0.3666518032550812,
      -0.3052970767021179,
      -0.44690316915512085,
      -0.063242606818676,
      -0.13360142707824707,
      -0.026735473424196243,
      -0.21206584572792053,
      -0.16408538818359375,
      -0.016344286501407623,
      -0.259518563747406,
      0.08103402704000473,
      0.031712956726551056,
      -0.1588672399520874,
      -0.3898463547229767,
      -0.012148014269769192,
      -0.23926502466201782,
      0.07863839715719223,
      -0.05700298026204109,
      0.03409319370985031,
      -0.31929561495780945,
      -0.03230889141559601,
      -0.2648857831954956,
      -0.0644029974937439,
      0.0789697989821434,
      -0.4625546932220459,
      -0.2742581367492676,
      0.07396147400140762,
      0.06848420947790146,
      0.09301406890153885,
      0.005540519952774048,
      -0.08709936589002609,
      -0.15865275263786316,
      0.09763005375862122,
      -0.13225500285625458,
      -0.16605988144874573,
      -0.19251026213169098,
      -0.11182311922311783,
      -0.05525408312678337,
      0.0054507777094841,
      -0.09608268737792969,
      -1.2133290767669678,
      -0.06706583499908447,
      -0.19542823731899261,
      0.014094769954681396,
      0.4069902002811432,
      0.0633886381983757,
      0.019675008952617645,
      -0.19920003414154053,
      -0.36205214262008667,
      -0.37732598185539246,
      -0.13810738921165466,
      -0.0007714778184890747,
      0.010518325492739677,
      -0.01480104774236679,
      -0.2687152922153473,
      -0.31044095754623413,
      0.044676948338747025
    ],
    [
      -0.031386200338602066,
      -0.03634749352931976,
      -0.02188771963119507,
      -0.034162357449531555,
      0.07948081940412521,
      0.04681447893381119,
      0.07981253415346146,
      0.0002822801470756531,
      0.017825357615947723,
      0.030649960041046143,
      -0.08366426080465317,
      0.007892780005931854,
      -0.00591229647397995,
      -0.04955528303980827,
      -0.06858470290899277,
      0.07824794203042984,
      0.07186556607484818,
      0.040965236723423004,
      0.08434455841779709,
      -0.03586868569254875,
      -0.015266671776771545,
      0.03346547484397888,
      -0.014604106545448303,
      -0.017344869673252106,
      -0.07305839657783508,
      0.02374652773141861,
      -0.05341548100113869,
      0.0032143518328666687,
      0.08617647737264633,
      -0.027207285165786743,
      -0.02785927802324295,
      0.053325824439525604,
      -0.03249626234173775,
      -0.007590562105178833,
      0.08253159373998642,
      -0.036236900836229324,
      -0.06323392689228058,
      -0.04946598410606384,
      -0.02450527995824814,
      -0.04194016009569168,
      -0.045867517590522766,
      0.03570398688316345,
      0.015020512044429779,
      -0.028289712965488434,
      -0.06866991519927979,
      -0.027829941362142563,
      -0.037303343415260315,
      -0.028763242065906525,
      -0.07973715662956238,
      0.01904141902923584,
      -0.06494100391864777,
      -0.0688367709517479,
      -0.0722162127494812,
      0.03689185529947281,
      -0.05321214348077774,
      -0.03648236393928528,
      0.06928237527608871,
      0.04693105071783066,
      0.05068110674619675,
      -0.08392531424760818,
      -0.06338326632976532,
      -0.0333675742149353,
      0.07301739603281021,
      0.0090421661734581,
      -0.06610539555549622,
      0.0005534738302230835,
      -0.06864865124225616,
      -0.0193658247590065,
      -0.024304591119289398,
      0.07651440054178238,
      0.027377113699913025,
      -0.015412375330924988,
      0.0149313285946846,
      -0.025514669716358185,
      0.03472781181335449,
      0.03496323525905609,
      0.023736342787742615,
      -0.03445173799991608,
      0.07540858536958694,
      -0.012760624289512634,
      -0.03441105782985687,
      0.05535886436700821,
      0.07204151898622513,
      0.08796051889657974,
      0.0261857807636261,
      -0.03013104572892189,
      0.04489173740148544,
      0.07583317905664444,
      -0.08669430762529373,
      -0.010950163006782532,
      -0.060277797281742096,
      0.01647203415632248,
      0.03655607998371124,
      -0.018259964883327484,
      -0.007394313812255859,
      0.039784543216228485,
      -0.014855407178401947,
      -0.07422672212123871,
      0.07072269171476364,
      -0.04448713734745979,
      -0.009710215032100677,
      0.008337356150150299,
      -0.005311861634254456,
      -0.08314567804336548,
      0.04055256396532059,
      -0.0401487722992897,
      -0.0458434633910656,
      0.02111734449863434,
      -0.04612652212381363,
      -0.04084952548146248,
      -0.029782447963953018,
      -0.03320552036166191,
      -0.03691428527235985,
      -0.02383708953857422,
      0.022969990968704224,
      -0.07152543216943741,
      -0.053499724715948105,
      0.0012897178530693054,
      0.012292005121707916,
      0.04881621152162552,
      -0.06208785995841026,
      0.028213292360305786,
      0.05023903399705887,
      0.04907853156328201,
      -0.08232680708169937,
      -0.03372936323285103,
      -0.07597558200359344,
      -0.0559331551194191
    ],
    [
      0.963756263256073,
      0.7158228754997253,
      -0.7328528761863708,
      -0.40973469614982605,
      0.7522773742675781,
      0.9616600275039673,
      0.04418463259935379,
      0.3920941948890686,
      1.737444281578064,
      1.693835973739624,
      0.4802837371826172,
      0.6705734729766846,
      -0.6589124798774719,
      -1.1712814569473267,
      0.8309332132339478,
      -1.1285712718963623,
      1.1674468517303467,
      0.9516264200210571,
      0.8946341276168823,
      1.4008961915969849,
      0.8188095092773438,
      -0.041358597576618195,
      0.014574319124221802,
      -1.1924124956130981,
      1.0985609292984009,
      0.9920911192893982,
      1.2201130390167236,
      -0.013011150062084198,
      0.6712414026260376,
      1.4650551080703735,
      0.8900663256645203,
      2.0533666610717773,
      0.8130323886871338,
      -4.8036041259765625,
      -0.023170597851276398,
      -0.07444318383932114,
      0.6990174055099487,
      2.627484083175659,
      0.07561176270246506,
      2.077563762664795,
      0.985446572303772,
      2.7637016773223877,
      0.5860806107521057,
      -1.47614324092865,
      0.032597318291664124,
      1.8101322650909424,
      0.8912706971168518,
      -0.055555280297994614,
      -0.6936569213867188,
      1.083532452583313,
      -0.03162277862429619,
      1.7911443710327148,
      0.7858613729476929,
      1.0451524257659912,
      0.33880311250686646,
      0.757834255695343,
      -0.04648103937506676,
      1.1723713874816895,
      -0.056443605571985245,
      1.1357300281524658,
      0.9662348628044128,
      -0.4117574393749237,
      0.08049964159727097,
      1.142651081085205,
      0.8954731822013855,
      -0.08741693198680878,
      1.4272927045822144,
      -0.6644963026046753,
      -0.0758824571967125,
      -1.0105295181274414,
      1.18428635597229,
      0.8952020406723022,
      0.8539432883262634,
      0.9772554039955139,
      2.242957830429077,
      0.7903180718421936,
      -0.05977575480937958,
      0.7266401052474976,
      0.8403939604759216,
      0.08745976537466049,
      0.8745675086975098,
      0.05325990170240402,
      0.017699018120765686,
      1.7357529401779175,
      1.1518820524215698,
      1.9650523662567139,
      0.7527159452438354,
      1.6467466354370117,
      0.9848944544792175,
      0.06925567239522934,
      0.1151663288474083,
      0.9642553329467773,
      -6.622320175170898,
      0.06630445271730423,
      0.0528995618224144,
      0.6821342706680298,
      0.7558642029762268,
      -0.07222475856542587,
      0.003327764570713043,
      1.5152515172958374,
      0.07267234474420547,
      0.36023688316345215,
      1.4940482378005981,
      0.9843650460243225,
      1.1036763191223145,
      0.829400360584259,
      1.4294641017913818,
      1.089730143547058,
      1.8087164163589478,
      -0.08259081840515137,
      1.1398041248321533,
      1.2805508375167847,
      1.3606412410736084,
      1.2384207248687744,
      -0.06127086281776428,
      -2.3562214374542236,
      -0.0003803512954618782,
      0.7137721180915833,
      1.072798490524292,
      0.6781330704689026,
      1.4185060262680054,
      0.9680334329605103,
      -0.04345249384641647,
      0.6456618309020996,
      0.046865127980709076,
      0.980880081653595,
      0.3922368586063385,
      0.050324227660894394
    ],
    [
      0.007701320573687553,
      -0.0026525515131652355,
      -0.0673614963889122,
      -0.0026984931901097298,
      0.06613429635763168,
      0.04453052207827568,
      -0.0688430517911911,
      0.06785785406827927,
      0.0068509578704833984,
      0.024802900850772858,
      0.0495862178504467,
      0.06016900762915611,
      -0.08510161936283112,
      0.05960991606116295,
      -0.07905829697847366,
      -0.008284672163426876,
      -0.08121863007545471,
      -0.03789440169930458,
      -0.023100001737475395,
      -0.0299554280936718,
      -0.013963229954242706,
      0.00697123259305954,
      0.08718792349100113,
      0.03614708408713341,
      0.030213985592126846,
      0.03537721186876297,
      0.04948753863573074,
      -0.0040790364146232605,
      -0.012013737112283707,
      0.018190063536167145,
      -0.0961446762084961,
      -0.09086652100086212,
      -0.008352337405085564,
      -0.03458196297287941,
      -0.0016219019889831543,
      -0.020281486213207245,
      -0.001167075359262526,
      0.03677103668451309,
      -0.029313281178474426,
      0.07078675180673599,
      0.05074552074074745,
      -0.06783789396286011,
      -0.08220119774341583,
      -0.08765541762113571,
      -0.048438601195812225,
      -0.03440748527646065,
      -0.025732172653079033,
      -0.021495357155799866,
      -0.059567905962467194,
      -0.04708332568407059,
      -0.03197399899363518,
      0.06694155931472778,
      -0.05137704685330391,
      -0.0793955847620964,
      0.02352409064769745,
      -0.020421603694558144,
      0.0676669254899025,
      0.03628559783101082,
      0.08120492845773697,
      -0.08373644202947617,
      0.037774644792079926,
      0.05868346616625786,
      -0.04364895075559616,
      0.06221523880958557,
      0.04721173644065857,
      0.000967957079410553,
      0.023294752463698387,
      -0.03394439071416855,
      -0.07709088176488876,
      0.02234281599521637,
      0.007231599185615778,
      -0.07306274771690369,
      0.028674166649580002,
      -0.09457866102457047,
      0.07606913894414902,
      0.06696401536464691,
      0.02406446635723114,
      -0.07448258996009827,
      0.02393980324268341,
      0.015062764286994934,
      0.004914208315312862,
      0.02904912829399109,
      0.06729494780302048,
      -0.049037788063287735,
      -0.03901981562376022,
      0.006184252444654703,
      -0.00938138272613287,
      0.053510211408138275,
      -0.06546451151371002,
      -0.003218807280063629,
      0.0025012067053467035,
      -0.04250708222389221,
      0.06025580316781998,
      0.009668052196502686,
      -0.08169116079807281,
      -0.024629518389701843,
      -0.05916629731655121,
      0.008588798344135284,
      -0.010272137820720673,
      -0.08764995634555817,
      -0.01610659807920456,
      -0.008465774357318878,
      -0.0454128198325634,
      0.06213028356432915,
      -0.037714894860982895,
      0.03777122125029564,
      0.003046327969059348,
      -0.09357514977455139,
      0.020770028233528137,
      0.07325056940317154,
      -0.07697561383247375,
      -0.05713201314210892,
      0.06761228293180466,
      0.05191631242632866,
      -0.049311328679323196,
      0.033228550106287,
      -0.011307701468467712,
      -0.10599250346422195,
      -0.008302750065922737,
      0.009677460417151451,
      -0.04575519636273384,
      0.011678568087518215,
      -0.07558095455169678,
      0.04538713023066521,
      0.07535409182310104,
      0.033435408025979996,
      -0.00396000687032938,
      0.029110603034496307
    ],
    [
      1.0135151147842407,
      0.9643997550010681,
      -0.40416932106018066,
      -0.3026658296585083,
      0.9089118838310242,
      1.1335792541503906,
      0.05998433381319046,
      0.5251680612564087,
      1.770156741142273,
      1.7273496389389038,
      0.8807039260864258,
      0.8042546510696411,
      -1.1129499673843384,
      -2.0344064235687256,
      1.0583386421203613,
      -1.7932863235473633,
      1.4474308490753174,
      0.9883847832679749,
      1.063494086265564,
      1.423678994178772,
      0.9495631456375122,
      0.009734608232975006,
      -0.00012831389904022217,
      -2.072868585586548,
      1.5024281740188599,
      1.2092761993408203,
      1.2478915452957153,
      -0.061328984797000885,
      0.9778914451599121,
      1.4432100057601929,
      1.0537216663360596,
      2.5181565284729004,
      1.0447957515716553,
      -6.38799524307251,
      0.07938448339700699,
      -0.033634670078754425,
      0.8804579973220825,
      2.6098132133483887,
      -0.06730850785970688,
      1.8292489051818848,
      1.1601707935333252,
      2.7356863021850586,
      0.8334636092185974,
      -0.8119258284568787,
      -0.10552524775266647,
      1.8310396671295166,
      1.077670931816101,
      -0.04438110440969467,
      -0.8320828080177307,
      1.2323077917099,
      -0.06506456434726715,
      1.6359045505523682,
      1.0475285053253174,
      1.1451854705810547,
      0.5434373617172241,
      1.0039856433868408,
      0.04616675525903702,
      1.3317304849624634,
      0.08562415093183517,
      1.3073478937149048,
      1.11675226688385,
      -0.34394311904907227,
      0.0127188041806221,
      1.2800201177597046,
      1.1265032291412354,
      -0.049730561673641205,
      1.3771440982818604,
      -0.44708845019340515,
      -0.07750123739242554,
      -1.724198818206787,
      1.2430719137191772,
      0.9690666794776917,
      1.061551570892334,
      1.0982780456542969,
      2.5189881324768066,
      0.8613766431808472,
      -0.05578528344631195,
      0.9651699662208557,
      1.1043323278427124,
      -0.025314263999462128,
      1.0547853708267212,
      0.02071724832057953,
      -0.08430060744285583,
      1.6592497825622559,
      1.3627943992614746,
      1.7372068166732788,
      0.9494014978408813,
      1.568542718887329,
      1.2464923858642578,
      0.07514076679944992,
      0.43041732907295227,
      1.1920337677001953,
      -7.184051036834717,
      -0.0858093723654747,
      0.030873596668243408,
      0.8673902750015259,
      1.1201406717300415,
      -2.5585293769836426e-05,
      0.06774049252271652,
      1.355159044265747,
      0.06397273391485214,
      0.6324222087860107,
      1.5585296154022217,
      0.9147676229476929,
      1.2441420555114746,
      0.994971513748169,
      1.465221643447876,
      1.136104941368103,
      1.5506296157836914,
      -0.07938982546329498,
      1.1666837930679321,
      1.7091357707977295,
      1.4916983842849731,
      1.2736042737960815,
      0.052499838173389435,
      -4.389484405517578,
      -0.011445723474025726,
      0.8917255401611328,
      0.9998922348022461,
      0.9028139114379883,
      1.4023315906524658,
      1.0739119052886963,
      -0.04121995344758034,
      0.817202627658844,
      -0.058213382959365845,
      1.0147663354873657,
      0.7714760303497314,
      -0.02969471924006939
    ],
    [
      0.19882290065288544,
      0.17392535507678986,
      -1.7220885753631592,
      -1.3150382041931152,
      0.1872030645608902,
      0.5479080080986023,
      -0.030430689454078674,
      0.6950696706771851,
      1.7273368835449219,
      1.9160046577453613,
      0.04914915934205055,
      0.5584455728530884,
      -0.9871948957443237,
      -0.838989794254303,
      0.22680506110191345,
      -1.348839282989502,
      1.01256263256073,
      0.6861132383346558,
      0.381591796875,
      0.8832830190658569,
      0.8689438700675964,
      -0.03270226716995239,
      0.08122187107801437,
      -1.1834036111831665,
      0.7051051259040833,
      1.3803764581680298,
      0.48965251445770264,
      0.014263011515140533,
      0.2774384617805481,
      1.9624179601669312,
      0.2997855842113495,
      1.735528826713562,
      0.31231221556663513,
      -3.6231300830841064,
      -0.018444016575813293,
      -0.07380113005638123,
      0.9245070219039917,
      2.0061147212982178,
      0.040108032524585724,
      2.2712998390197754,
      0.5934832692146301,
      2.4775192737579346,
      0.8277628421783447,
      -1.9447333812713623,
      0.018491243943572044,
      1.746055245399475,
      0.41298386454582214,
      -0.2062307596206665,
      -1.2517077922821045,
      0.36709943413734436,
      0.06998970359563828,
      1.3729621171951294,
      0.2737087905406952,
      0.695311427116394,
      0.5930419564247131,
      0.584551215171814,
      -0.03703669086098671,
      0.6169679760932922,
      0.07155009359121323,
      0.5427936911582947,
      0.4605688154697418,
      -1.4100228548049927,
      0.011196687817573547,
      0.661212682723999,
      0.28082188963890076,
      0.060706473886966705,
      0.9132360219955444,
      -1.3257685899734497,
      -0.014401011168956757,
      -0.9315955638885498,
      0.472687304019928,
      0.7418659925460815,
      0.7148277163505554,
      0.7134591341018677,
      2.051706552505493,
      0.09730026870965958,
      -0.019798673689365387,
      0.07160182297229767,
      0.37184661626815796,
      0.05948268622159958,
      0.5033063888549805,
      0.0835776999592781,
      -0.03693041577935219,
      1.332639217376709,
      0.7749526500701904,
      1.6787006855010986,
      0.16795825958251953,
      1.4492844343185425,
      0.29642266035079956,
      0.02306923270225525,
      0.29433611035346985,
      0.33607447147369385,
      -5.597942352294922,
      -0.005090609192848206,
      0.01715146005153656,
      0.7085734605789185,
      0.27438342571258545,
      -0.08475037664175034,
      0.041690386831760406,
      1.963411808013916,
      0.027162112295627594,
      0.8726592659950256,
      1.0797570943832397,
      0.4195406436920166,
      0.76252681016922,
      0.3176215887069702,
      1.185189127922058,
      0.571254312992096,
      2.17807936668396,
      0.04006069153547287,
      0.5633787512779236,
      0.35044920444488525,
      0.9829624891281128,
      0.7506363987922668,
      0.053182922303676605,
      -2.0218868255615234,
      0.005054103210568428,
      0.11724185198545456,
      1.2453256845474243,
      0.49459564685821533,
      1.345131754875183,
      0.47076544165611267,
      0.06925389915704727,
      0.2933865487575531,
      -0.05490275099873543,
      0.817237138748169,
      0.0998619794845581,
      -0.07540193945169449
    ],
    [
      0.00028304295847192407,
      -0.040130142122507095,
      -0.05370287597179413,
      -0.028421010822057724,
      -0.04452537000179291,
      0.07238878309726715,
      0.03390329331159592,
      0.07948510348796844,
      0.024235688149929047,
      0.020013883709907532,
      0.023484516888856888,
      0.003508755238726735,
      -0.06936465203762054,
      -0.05226876214146614,
      -0.03444787859916687,
      0.0013287663459777832,
      0.03329716622829437,
      0.02136579342186451,
      0.05741754174232483,
      0.0069383117370307446,
      -0.030166342854499817,
      -0.06647036224603653,
      -0.06473656743764877,
      -0.052797671407461166,
      0.026658236980438232,
      0.04764670133590698,
      0.06580415368080139,
      -0.02795827016234398,
      -0.02003062516450882,
      -0.026248108595609665,
      -0.013247724622488022,
      0.028372786939144135,
      -0.011941076256334782,
      0.004091918468475342,
      0.011197671294212341,
      0.03291743993759155,
      -0.03828643262386322,
      -0.052705761045217514,
      0.020852982997894287,
      -0.010465674102306366,
      -0.052482519298791885,
      0.037119828164577484,
      -0.010032359510660172,
      -0.012857377529144287,
      -0.04278736561536789,
      -0.011628895998001099,
      -0.08791425079107285,
      0.020107492804527283,
      -0.0033670358825474977,
      0.04099251329898834,
      0.0057072713971138,
      -0.004390638787299395,
      0.011753391474485397,
      0.054987188428640366,
      -0.05319081246852875,
      0.04017595201730728,
      0.021616391837596893,
      -0.07154663652181625,
      0.030775658786296844,
      -0.06542687863111496,
      -0.040838368237018585,
      -0.050856128334999084,
      -0.060131847858428955,
      0.05722709745168686,
      -0.09201838821172714,
      0.044195495545864105,
      -0.08046263456344604,
      -0.010757394134998322,
      0.0052716732025146484,
      0.06283620744943619,
      -0.043835509568452835,
      0.012815925292670727,
      0.0018675830215215683,
      0.03918473422527313,
      0.005254827439785004,
      0.020570620894432068,
      -0.053394585847854614,
      -0.07450425624847412,
      0.06605297327041626,
      -0.06440567225217819,
      -0.027013562619686127,
      -0.010684393346309662,
      0.08643320947885513,
      -0.01910191774368286,
      -0.07950227707624435,
      -0.0332610122859478,
      0.032445028424263,
      0.024136770516633987,
      0.06016252189874649,
      -0.018094591796398163,
      0.030415816232562065,
      -0.09610007703304291,
      0.034200966358184814,
      0.04061124473810196,
      0.05701816827058792,
      -0.06295764446258545,
      -0.036284226924180984,
      0.021383769810199738,
      -0.06281005591154099,
      -0.07031124830245972,
      -0.0850333720445633,
      0.00493408739566803,
      0.04288516938686371,
      0.009938046336174011,
      -0.007635920774191618,
      0.017592359334230423,
      -0.06578486412763596,
      -0.0035681326407939196,
      -0.021957747638225555,
      -0.043764930218458176,
      0.06543629616498947,
      -0.06838187575340271,
      0.0010404792847111821,
      -0.09017737954854965,
      -0.002998724579811096,
      -0.039276424795389175,
      0.02909279614686966,
      -0.062368206679821014,
      0.04494983330368996,
      -0.08463127911090851,
      0.04470834508538246,
      -0.07920267432928085,
      0.047339506447315216,
      -0.04974041506648064,
      -0.00020591169595718384,
      -0.027664918452501297,
      0.044829703867435455,
      0.028967298567295074
    ],
    [
      0.5789183974266052,
      0.5915189385414124,
      -0.917140543460846,
      -0.4580661654472351,
      0.677922785282135,
      1.0126733779907227,
      -0.045093029737472534,
      0.9087784290313721,
      1.8488314151763916,
      1.6360357999801636,
      0.5103538036346436,
      0.863433301448822,
      -1.0144046545028687,
      -1.6091852188110352,
      0.8822888731956482,
      -1.3663376569747925,
      0.5916682481765747,
      1.193488359451294,
      0.948341429233551,
      1.214081048965454,
      1.0435945987701416,
      0.04217465966939926,
      -0.08237767219543457,
      -1.4367079734802246,
      0.2209448665380478,
      1.607930302619934,
      0.7982569336891174,
      -0.03150201961398125,
      0.7624490857124329,
      1.9159343242645264,
      0.8148394227027893,
      1.4029446840286255,
      0.5088905692100525,
      -3.044691562652588,
      -0.01439601182937622,
      -0.027602825313806534,
      1.346294641494751,
      1.5817859172821045,
      0.08659952133893967,
      1.9549787044525146,
      1.0821733474731445,
      2.396843194961548,
      1.1883193254470825,
      -0.713464617729187,
      -0.02854691632091999,
      1.4053877592086792,
      0.9014422297477722,
      -0.02289445325732231,
      -0.6610772609710693,
      0.7219566702842712,
      0.06171946972608566,
      1.627508521080017,
      0.7626336812973022,
      1.1391284465789795,
      0.7529845833778381,
      1.0335842370986938,
      0.006199434399604797,
      1.1711550951004028,
      -0.08097406476736069,
      0.8257084488868713,
      0.8723371624946594,
      -0.6982501745223999,
      0.059266842901706696,
      0.9308962225914001,
      0.7829760909080505,
      -0.04683529585599899,
      0.9978753328323364,
      -0.6387553811073303,
      0.04269237071275711,
      -1.1959662437438965,
      0.7433995604515076,
      1.3284469842910767,
      1.0397531986236572,
      1.1366297006607056,
      2.1371257305145264,
      0.6759626269340515,
      0.011876970529556274,
      0.6886864900588989,
      0.7161561846733093,
      0.04281262308359146,
      0.8457984924316406,
      0.05375545471906662,
      0.024032413959503174,
      0.889641523361206,
      1.1404379606246948,
      1.9514003992080688,
      0.8710567355155945,
      1.7977062463760376,
      0.8412538170814514,
      0.07962051779031754,
      0.36850062012672424,
      0.7000657320022583,
      -4.884357929229736,
      -0.0457877442240715,
      0.057430200278759,
      1.1908320188522339,
      0.5366129875183105,
      -0.052157334983348846,
      -0.08758525550365448,
      1.7779552936553955,
      -0.08027461171150208,
      1.0054197311401367,
      1.4843500852584839,
      1.004679799079895,
      1.4459855556488037,
      0.9256988167762756,
      1.3788838386535645,
      1.0686832666397095,
      1.8866108655929565,
      0.0036640241742134094,
      0.7571295499801636,
      1.3019229173660278,
      1.246305227279663,
      1.0658432245254517,
      -0.043826326727867126,
      -2.7921571731567383,
      0.056058380752801895,
      0.6692922115325928,
      1.542447566986084,
      0.9965168833732605,
      1.293655276298523,
      0.999997615814209,
      0.031639836728572845,
      0.8565266132354736,
      -0.08312129974365234,
      1.1506000757217407,
      0.452353298664093,
      -0.10171923786401749
    ],
    [
      -0.09060949087142944,
      0.06771218776702881,
      -0.006722770631313324,
      -0.043698348104953766,
      -0.040642451494932175,
      -0.07738423347473145,
      0.06897523254156113,
      -0.02859042026102543,
      -0.04969528317451477,
      -0.06703485548496246,
      0.04133428633213043,
      -0.022394021973013878,
      -0.009285837411880493,
      -0.02303694188594818,
      -0.05299517139792442,
      0.01572342962026596,
      0.05765208601951599,
      -0.061524271965026855,
      -0.0060965754091739655,
      -0.0775650143623352,
      -0.041445039212703705,
      0.0775846317410469,
      0.0009267553687095642,
      0.08514618128538132,
      -0.02582244947552681,
      -0.04817555472254753,
      -0.06312066316604614,
      0.07833988219499588,
      -0.0782962441444397,
      0.04638569802045822,
      0.011643404141068459,
      0.015716535970568657,
      0.03953911364078522,
      -0.023124419152736664,
      0.054691486060619354,
      -0.07042098790407181,
      -0.03109867498278618,
      0.06470391899347305,
      0.02623187005519867,
      -0.01177089661359787,
      -0.03096158429980278,
      -0.05397120863199234,
      0.04374881088733673,
      -0.002810761332511902,
      -0.002990521490573883,
      0.020903266966342926,
      0.05489683523774147,
      -0.045094262808561325,
      -0.038652483373880386,
      0.04957171902060509,
      0.04991929978132248,
      -0.05385968089103699,
      -0.09774447232484818,
      0.007889789529144764,
      0.036415599286556244,
      0.011181884445250034,
      0.06269512325525284,
      -0.08045413345098495,
      0.044573016464710236,
      -0.06527166813611984,
      0.03941818326711655,
      0.06140919774770737,
      0.027994006872177124,
      0.06119178608059883,
      -0.06858830153942108,
      -0.0790523961186409,
      -0.09532665461301804,
      0.05549298971891403,
      0.030963316559791565,
      -0.06472384929656982,
      0.03247588127851486,
      0.07080443203449249,
      -0.09708815813064575,
      0.053787827491760254,
      0.013556376099586487,
      -0.0020836656913161278,
      0.079531230032444,
      0.06971617043018341,
      0.026913940906524658,
      0.06983872503042221,
      0.026447666808962822,
      0.014402136206626892,
      -0.07769433408975601,
      0.006709923502057791,
      -0.07321367412805557,
      0.02121449075639248,
      0.00527107622474432,
      0.001985706388950348,
      -0.07075750827789307,
      -0.05358077213168144,
      0.05510491877794266,
      0.032723478972911835,
      0.046601854264736176,
      -0.026337679475545883,
      -0.015220142900943756,
      -0.03265470266342163,
      0.05045643076300621,
      -0.0381561741232872,
      0.05567271262407303,
      0.06093006208539009,
      -0.08083609491586685,
      0.0005397573113441467,
      -0.027178334072232246,
      -0.05921763926744461,
      0.02787664905190468,
      -0.021065520122647285,
      0.06708023697137833,
      -0.06563884019851685,
      0.04106801003217697,
      -0.07546532154083252,
      -0.05463308095932007,
      0.006029233336448669,
      0.059520602226257324,
      0.03622663766145706,
      -0.07257438451051712,
      0.009790375828742981,
      -0.052104029804468155,
      -0.006476257462054491,
      -0.07934755831956863,
      -0.03624777868390083,
      0.05028621107339859,
      -0.09142955392599106,
      -0.08427145332098007,
      0.00639927014708519,
      0.012116663157939911,
      -0.024042004719376564,
      0.0668620616197586,
      -0.05321764573454857
    ],
    [
      -0.05365881696343422,
      -0.06606817245483398,
      -0.01645106077194214,
      -0.02255713939666748,
      0.05469001084566116,
      -0.004962921142578125,
      0.02822713553905487,
      -0.03673036769032478,
      0.07169995456933975,
      0.0745130404829979,
      -0.07915785908699036,
      -0.022715769708156586,
      -0.07499728351831436,
      0.03754974156618118,
      -0.07722341269254684,
      -0.04179105535149574,
      0.0883151963353157,
      -0.08440373092889786,
      0.06521331518888474,
      0.007466964423656464,
      0.07067839056253433,
      -0.04485614225268364,
      0.05805598944425583,
      0.010664388537406921,
      0.006798163056373596,
      0.06032789498567581,
      -0.08401552587747574,
      -0.07119250297546387,
      0.08536223322153091,
      -0.05307689681649208,
      -0.0637110024690628,
      -0.004321716725826263,
      -0.028293326497077942,
      -0.012092575430870056,
      -0.059218913316726685,
      0.03189218044281006,
      -0.07605654746294022,
      0.007158830761909485,
      0.0515780970454216,
      0.016982585191726685,
      0.011744149029254913,
      0.012928038835525513,
      -0.02589341253042221,
      -0.016837820410728455,
      -0.037272777408361435,
      -0.0597088485956192,
      -0.046797752380371094,
      0.08737722784280777,
      -0.014792360365390778,
      0.030962087213993073,
      0.061125315725803375,
      -0.006904706358909607,
      -0.047550641000270844,
      -0.05988655239343643,
      -0.032562561333179474,
      0.03154902160167694,
      -0.07443699985742569,
      -0.01079193502664566,
      0.03362174332141876,
      0.07211209088563919,
      0.026598751544952393,
      0.017480269074440002,
      0.06050983816385269,
      0.0408431813120842,
      0.02990298718214035,
      -0.027404502034187317,
      -0.0708785131573677,
      -0.019092068076133728,
      -0.0160304456949234,
      0.006490990519523621,
      -0.009720973670482635,
      0.0357343927025795,
      0.058738477528095245,
      -0.035834431648254395,
      -0.08386822044849396,
      -0.04534849151968956,
      -0.04229173809289932,
      0.05010206252336502,
      -0.0570143386721611,
      -0.008313551545143127,
      -0.018732942640781403,
      -0.05364574119448662,
      0.04006510227918625,
      -0.03681865334510803,
      -0.00457252562046051,
      -0.06214449554681778,
      -0.008914828300476074,
      0.012558728456497192,
      -0.003596767783164978,
      -0.03302610293030739,
      0.02625872939825058,
      -0.022901207208633423,
      -0.049002401530742645,
      -0.0651804506778717,
      -0.018723264336586,
      -0.08349856734275818,
      0.07336408644914627,
      -0.042225565761327744,
      -0.03662974014878273,
      0.008170537650585175,
      0.022913195192813873,
      -0.008334346115589142,
      0.06063642352819443,
      -0.05152595415711403,
      0.03167668730020523,
      -0.00019934773445129395,
      -0.0719013661146164,
      -0.034232355654239655,
      0.022493697702884674,
      0.016885869204998016,
      0.06427029520273209,
      0.059131182730197906,
      -0.048209019005298615,
      -0.0377444289624691,
      -0.018741987645626068,
      -0.06332322955131531,
      -0.023863956332206726,
      -0.0723293200135231,
      0.033617809414863586,
      0.06254000216722488,
      0.006998270750045776,
      -0.06327550113201141,
      -0.06693720072507858,
      -0.03440950810909271,
      0.025708049535751343,
      0.0021559670567512512,
      0.016070939600467682,
      0.08330436795949936
    ],
    [
      0.019397728145122528,
      -0.0029049774166196585,
      -0.03597582131624222,
      0.023021938279271126,
      0.010416999459266663,
      -0.0978815108537674,
      -0.052211787551641464,
      -0.015077679418027401,
      0.03353828191757202,
      0.027172083035111427,
      -0.07465149462223053,
      -0.10821489244699478,
      -0.022972293198108673,
      -0.02809673734009266,
      0.0036920306738466024,
      -0.009781892411410809,
      0.04530154913663864,
      -0.01590287871658802,
      0.04247046262025833,
      -0.08360067754983902,
      0.03529096022248268,
      0.010532014071941376,
      -0.04420728236436844,
      0.026638388633728027,
      -0.10882371664047241,
      0.07145906239748001,
      -0.014250044710934162,
      0.008534125983715057,
      0.018935436382889748,
      0.007337324321269989,
      0.015863588079810143,
      0.03354160487651825,
      -0.09100697934627533,
      0.058474235236644745,
      -0.013235166668891907,
      -0.020554624497890472,
      -0.0007232808275148273,
      0.0475112646818161,
      -0.04804924875497818,
      -0.0595676563680172,
      0.03296273946762085,
      -0.041513171046972275,
      0.010197283700108528,
      -0.03190987929701805,
      0.024329155683517456,
      0.06745047122240067,
      -0.06683553755283356,
      -0.042891647666692734,
      0.026296010240912437,
      -0.016840610653162003,
      -0.009727858006954193,
      -0.10040626674890518,
      0.053526218980550766,
      -0.02177574671804905,
      -0.03146429732441902,
      -0.05395585671067238,
      -0.01744239777326584,
      0.021356530487537384,
      -0.002031460404396057,
      0.053951989859342575,
      -0.02700677514076233,
      -0.030863268300890923,
      0.04989094287157059,
      -0.024096960201859474,
      -0.03950388729572296,
      0.0295417383313179,
      0.04773272946476936,
      0.023406585678458214,
      0.061546407639980316,
      0.05727902799844742,
      0.0031702867709100246,
      0.010981792584061623,
      0.009083778597414494,
      -0.01305281464010477,
      0.07519518584012985,
      0.060113076120615005,
      0.03146524727344513,
      -0.02638796903192997,
      0.057326797395944595,
      -0.06879446655511856,
      0.042967185378074646,
      0.04683040827512741,
      0.056757353246212006,
      -0.017829397693276405,
      -0.08792325109243393,
      0.045572396367788315,
      -0.06055570766329765,
      0.004566141404211521,
      0.02823031134903431,
      -0.08260117471218109,
      -0.009932242333889008,
      -0.053220394998788834,
      0.06273410469293594,
      -0.05627698823809624,
      0.05366673320531845,
      0.03824545070528984,
      0.026849227026104927,
      0.084853895008564,
      0.01338651031255722,
      -0.08012199401855469,
      0.06309733539819717,
      0.008091665804386139,
      -0.02034747414290905,
      -0.10673408955335617,
      -0.04176383465528488,
      -0.06484241038560867,
      0.0653635784983635,
      0.040854115039110184,
      0.06593666225671768,
      0.060531578958034515,
      -0.07664290815591812,
      -0.03796010464429855,
      -0.05593394488096237,
      -0.05737152695655823,
      0.06880433112382889,
      0.00915430672466755,
      0.07083035260438919,
      -0.026162130758166313,
      -0.09619486331939697,
      -0.047571081668138504,
      0.04027189686894417,
      0.03181534260511398,
      0.027362510561943054,
      -0.04445186257362366,
      -0.08249912410974503,
      -0.06564619392156601,
      0.02423015981912613,
      -0.035652123391628265
    ],
    [
      0.04227956384420395,
      0.024133652448654175,
      -0.03394884243607521,
      0.053835429251194,
      -0.02840205654501915,
      -0.0029364973306655884,
      -0.03366827219724655,
      -0.0838426724076271,
      0.014251574873924255,
      0.0255415141582489,
      -0.044501885771751404,
      0.05422154814004898,
      -0.07928925007581711,
      -0.08520429581403732,
      -0.05459297075867653,
      -0.03054744377732277,
      -0.0098162442445755,
      -0.017080850899219513,
      0.04033941775560379,
      -0.07757185399532318,
      0.013014964759349823,
      0.001530677080154419,
      0.023346036672592163,
      0.08786509186029434,
      0.054398469626903534,
      -0.04894103482365608,
      -0.07243005186319351,
      -0.02139890193939209,
      -0.04433797672390938,
      0.030874505639076233,
      0.0008102506399154663,
      0.07109282165765762,
      0.03471948951482773,
      -0.016251996159553528,
      0.0030378997325897217,
      0.02116777002811432,
      -0.010967865586280823,
      0.07132361084222794,
      -0.06911087036132812,
      0.04308100789785385,
      -0.05634261295199394,
      -0.07743538916110992,
      -0.018145829439163208,
      0.04307208210229874,
      0.06245184689760208,
      0.02218039333820343,
      -0.0076393187046051025,
      -0.004954993724822998,
      -0.03583098575472832,
      -0.007931739091873169,
      -0.00610709935426712,
      0.075215183198452,
      0.051728762686252594,
      -0.07073047012090683,
      0.00036563724279403687,
      -0.05436500906944275,
      -0.01403084397315979,
      -0.07024823874235153,
      0.02297753095626831,
      -0.06373489648103714,
      0.08725883811712265,
      0.06675110012292862,
      -0.060842905193567276,
      -0.08321443945169449,
      0.0034487098455429077,
      -0.02467375248670578,
      0.025947876274585724,
      -0.05983131751418114,
      0.036180995404720306,
      -0.07634537667036057,
      -0.046648722141981125,
      -0.0464659109711647,
      0.04277036339044571,
      -0.0023141130805015564,
      -0.0849437266588211,
      -0.05048035457730293,
      -0.04090408608317375,
      -0.08200932294130325,
      0.011317849159240723,
      0.031496115028858185,
      -0.01621728390455246,
      -0.0351736843585968,
      -0.0005360320210456848,
      -0.07020524889230728,
      -0.053819797933101654,
      -0.00201580673456192,
      0.0785221979022026,
      -0.027180153876543045,
      0.04381052404642105,
      -0.03478526696562767,
      -0.02352878451347351,
      -0.08414079993963242,
      0.07322842627763748,
      0.08606616407632828,
      -0.0018564388155937195,
      0.056159280240535736,
      0.07229650765657425,
      0.04390404373407364,
      0.04552169889211655,
      -0.08414487540721893,
      -0.08305593580007553,
      -0.06784161925315857,
      0.02764660120010376,
      -0.07645385712385178,
      -0.06747077405452728,
      -0.0428420826792717,
      -0.08146624267101288,
      0.00011909753084182739,
      0.01275162398815155,
      -0.05172489956021309,
      0.05787362903356552,
      -0.03355618193745613,
      -0.024883709847927094,
      0.06734088808298111,
      0.07588595896959305,
      -0.01013994961977005,
      -0.06345205754041672,
      -0.04434169828891754,
      0.011255301535129547,
      0.05181258171796799,
      0.044003672897815704,
      -0.03903074190020561,
      -0.08355939388275146,
      -0.07735279202461243,
      -0.028121303766965866,
      0.0011087581515312195,
      -0.03970188647508621,
      -0.0698891282081604
    ],
    [
      0.009315043687820435,
      -0.07015743106603622,
      -0.06787554919719696,
      -0.07185494899749756,
      -0.02395089715719223,
      0.07806972414255142,
      0.034552715718746185,
      -0.010480120778083801,
      0.018191315233707428,
      0.03519704192876816,
      0.0005149692296981812,
      -0.07129177451133728,
      -0.0544571727514267,
      -0.06004686653614044,
      -0.0022443830966949463,
      -0.08091083914041519,
      -0.016070865094661713,
      -0.03232114389538765,
      0.08674167841672897,
      0.071844182908535,
      0.05134069174528122,
      0.004957020282745361,
      -0.0286177396774292,
      0.022545255720615387,
      -0.06107012927532196,
      -0.037697985768318176,
      -0.017755933105945587,
      -0.02076725661754608,
      -0.08373047411441803,
      0.0351371094584465,
      0.07278621941804886,
      -0.04875266179442406,
      0.023826517164707184,
      -0.010250777006149292,
      -0.0032237395644187927,
      0.005152158439159393,
      0.07659579068422318,
      0.011843204498291016,
      -0.0559212788939476,
      -0.031794484704732895,
      0.04318011552095413,
      0.02758198231458664,
      0.001717887818813324,
      -0.0116652250289917,
      -0.034389857202768326,
      -0.031371425837278366,
      -0.04662361368536949,
      0.014483466744422913,
      0.02482316642999649,
      0.06768294423818588,
      -0.01996811479330063,
      0.006327614188194275,
      0.057124458253383636,
      0.03844810277223587,
      0.011356815695762634,
      0.02715984731912613,
      0.004587925970554352,
      -0.07581879943609238,
      0.0034074708819389343,
      -0.01931983232498169,
      0.07976268976926804,
      0.07978176325559616,
      0.017535418272018433,
      0.0790017768740654,
      -0.04552167281508446,
      0.07682482153177261,
      0.07610105723142624,
      -0.0033782944083213806,
      -0.07093247771263123,
      -0.028522595763206482,
      -0.02363745868206024,
      0.0014600008726119995,
      -0.08013740181922913,
      0.016380615532398224,
      -0.03675997629761696,
      -0.022631056606769562,
      -0.04565189406275749,
      -0.018661782145500183,
      -0.08208847790956497,
      -0.04686066880822182,
      0.00814276933670044,
      0.05791874974966049,
      0.08032272011041641,
      -0.06686185300350189,
      0.03711613267660141,
      -0.04982413724064827,
      -0.0683380663394928,
      -0.0038922056555747986,
      -0.05070367828011513,
      -0.07612413913011551,
      -0.0826021283864975,
      -0.05916259437799454,
      0.07263185828924179,
      0.04929489642381668,
      -0.034988269209861755,
      -0.059160150587558746,
      -0.06799200922250748,
      -0.05219521373510361,
      -0.03637165576219559,
      0.053085096180438995,
      0.028925657272338867,
      -0.03406240791082382,
      0.06084931641817093,
      -0.05490977689623833,
      -0.07200892269611359,
      0.01929076761007309,
      -0.04873741418123245,
      0.025144577026367188,
      0.0748857781291008,
      -0.04179932549595833,
      -0.061678446829319,
      0.033269383013248444,
      -0.079827681183815,
      0.07885811477899551,
      -0.04174194484949112,
      0.04273221641778946,
      -0.0702839121222496,
      -0.05982726067304611,
      0.009736388921737671,
      0.031413644552230835,
      0.06853590160608292,
      0.07392234355211258,
      -0.005083352327346802,
      -0.011363841593265533,
      0.01461075246334076,
      -0.02053181827068329,
      0.003008812665939331,
      -0.0837080329656601
    ],
    [
      0.8903647065162659,
      0.9065620303153992,
      -0.49175378680229187,
      -0.1672309786081314,
      0.8763240575790405,
      1.1064696311950684,
      0.08033419400453568,
      0.6089106202125549,
      1.7853748798370361,
      1.7311913967132568,
      0.7022411227226257,
      0.6748905777931213,
      -1.0336567163467407,
      -1.8445228338241577,
      0.9530428051948547,
      -1.579843521118164,
      1.3223719596862793,
      1.0722248554229736,
      0.9898404479026794,
      1.4139987230300903,
      1.0564494132995605,
      0.014864206314086914,
      -0.05319345369935036,
      -1.8839008808135986,
      1.324062705039978,
      1.3220869302749634,
      1.1787326335906982,
      -0.06891792267560959,
      0.9393537044525146,
      1.543591022491455,
      1.0212411880493164,
      2.307013750076294,
      0.8818051815032959,
      -5.68029260635376,
      0.08314257115125656,
      -0.046060942113399506,
      1.0695528984069824,
      2.345946788787842,
      -0.027799271047115326,
      1.822776436805725,
      1.1055433750152588,
      2.7125966548919678,
      0.8192002773284912,
      -0.8798975348472595,
      0.032089173793792725,
      1.8697850704193115,
      0.9617618322372437,
      -0.1870061308145523,
      -0.6804556250572205,
      1.0240252017974854,
      0.05458780378103256,
      1.6490060091018677,
      0.8867021203041077,
      1.0585576295852661,
      0.5770591497421265,
      1.0152703523635864,
      0.05694732815027237,
      1.276877760887146,
      -0.03316314145922661,
      1.2975326776504517,
      1.0756584405899048,
      -0.35989129543304443,
      -0.030635152012109756,
      1.1480756998062134,
      1.0524919033050537,
      0.03232959657907486,
      1.3955368995666504,
      -0.478667676448822,
      0.0731053575873375,
      -1.5295798778533936,
      1.0551646947860718,
      1.0383249521255493,
      0.9469741582870483,
      1.0256807804107666,
      2.314072608947754,
      0.8095083236694336,
      0.0008332729339599609,
      0.7966110110282898,
      0.9254493117332458,
      0.08019373565912247,
      0.9700033664703369,
      0.04212171584367752,
      0.06155454367399216,
      1.4305343627929688,
      1.2328519821166992,
      1.9237853288650513,
      1.0112247467041016,
      1.6712138652801514,
      1.1475087404251099,
      -0.06937302649021149,
      0.332517147064209,
      1.0661170482635498,
      -6.732682228088379,
      0.08732084184885025,
      0.006427355110645294,
      0.8428487181663513,
      0.9725784063339233,
      0.07729416340589523,
      0.008202970027923584,
      1.3835865259170532,
      -0.0038269460201263428,
      0.7105244398117065,
      1.5492817163467407,
      0.9940329790115356,
      1.2369208335876465,
      0.9989389777183533,
      1.5322219133377075,
      1.0607198476791382,
      1.7556432485580444,
      0.05430089682340622,
      0.9979950785636902,
      1.7280532121658325,
      1.4090096950531006,
      1.2110484838485718,
      -0.06321210414171219,
      -3.8714792728424072,
      -0.10096563398838043,
      0.8831576108932495,
      1.2536174058914185,
      0.9238975644111633,
      1.4680602550506592,
      1.0763834714889526,
      0.015136368572711945,
      0.7660102844238281,
      -0.003736920654773712,
      1.1336872577667236,
      0.7056969404220581,
      -0.022363970056176186
    ],
    [
      -0.044570911675691605,
      0.061782173812389374,
      0.0585189089179039,
      0.014184609055519104,
      -0.04064767435193062,
      0.018740586936473846,
      0.00023634731769561768,
      0.08075185865163803,
      0.013098515570163727,
      0.006817333400249481,
      0.006042182445526123,
      0.047023408114910126,
      -0.0010921061038970947,
      0.075761578977108,
      0.046049438416957855,
      -0.06678862124681473,
      -1.0132789611816406e-06,
      -0.07502463459968567,
      -0.06786532700061798,
      0.017173252999782562,
      0.01986251026391983,
      -0.007735066115856171,
      0.0840098038315773,
      -0.04748326167464256,
      -0.037042293697595596,
      -0.014155007898807526,
      0.0005359053611755371,
      -0.007486701011657715,
      0.07958387583494186,
      -0.037330497056245804,
      -0.046233732253313065,
      0.007596977055072784,
      0.06638691574335098,
      0.020979471504688263,
      0.047617681324481964,
      0.017110683023929596,
      0.07533236593008041,
      0.053088121116161346,
      0.06324794143438339,
      -0.01190502941608429,
      -0.0731763169169426,
      -0.04192827269434929,
      0.03011111170053482,
      0.06200855225324631,
      -0.03453371673822403,
      0.07313420623540878,
      0.012703724205493927,
      0.00035108625888824463,
      0.003445766866207123,
      -0.015615798532962799,
      0.0827481672167778,
      0.003839142620563507,
      0.054138652980327606,
      -0.07460098713636398,
      -0.045539531856775284,
      0.009938091039657593,
      0.07057806104421616,
      0.04208057373762131,
      0.016834400594234467,
      -0.08732694387435913,
      0.0016616582870483398,
      -0.05834529548883438,
      -0.07547232508659363,
      0.012086525559425354,
      -0.05592377856373787,
      0.08022473007440567,
      -0.04804275929927826,
      0.02848474681377411,
      0.05188068002462387,
      -0.0686987042427063,
      0.04523538798093796,
      -0.011834852397441864,
      0.04579954594373703,
      0.08553647249937057,
      -0.03766806051135063,
      -0.03828134015202522,
      0.07022889703512192,
      0.009828820824623108,
      -0.008815214037895203,
      0.06705743819475174,
      -0.042704302817583084,
      -0.004364274442195892,
      0.0607118234038353,
      0.03454313427209854,
      -0.057170890271663666,
      0.022973597049713135,
      -0.06739052385091782,
      -0.04800136014819145,
      0.05683474987745285,
      -0.023556582629680634,
      -0.04502123221755028,
      0.006265170872211456,
      0.02159949392080307,
      -0.05494368448853493,
      -0.05960586294531822,
      -0.08560138940811157,
      0.02283809334039688,
      -0.05703076347708702,
      0.0067359283566474915,
      -0.01976878196001053,
      -0.05779360234737396,
      -0.02820461615920067,
      -0.06794323772192001,
      -0.04678685590624809,
      -0.002755172550678253,
      -0.07556453347206116,
      -0.07751952856779099,
      0.06620822101831436,
      0.008317172527313232,
      -0.03909008577466011,
      -0.002938792109489441,
      0.0655457153916359,
      -0.07373935729265213,
      -0.04686204716563225,
      -0.06391718983650208,
      -0.006425917148590088,
      -0.003041699528694153,
      -0.068881556391716,
      0.06134893745183945,
      -0.06787516176700592,
      0.08252251893281937,
      -0.060843802988529205,
      -0.012113228440284729,
      0.016527466475963593,
      -0.039286624640226364,
      0.08128563314676285,
      -0.06093795597553253,
      -0.004899226129055023
    ],
    [
      -0.07822743058204651,
      0.01118808425962925,
      0.05375780165195465,
      0.0602993406355381,
      -0.002850234042853117,
      -0.05549343302845955,
      0.08589977771043777,
      0.006596453487873077,
      0.05882572755217552,
      -0.032817985862493515,
      -0.054373301565647125,
      -0.07337410748004913,
      0.05812850967049599,
      -0.009121202863752842,
      -0.07683214545249939,
      -0.013840189203619957,
      -0.051336292177438736,
      -0.008843955583870411,
      0.015974724665284157,
      -0.0572599396109581,
      0.015423715114593506,
      -0.055806778371334076,
      0.01703205704689026,
      -0.1074136346578598,
      0.0007054638117551804,
      0.08781551569700241,
      0.06812150031328201,
      0.03224240243434906,
      0.05169081315398216,
      0.08593627065420151,
      0.01169192511588335,
      0.016006289049983025,
      -0.0018736730562523007,
      0.07825282961130142,
      0.0759291723370552,
      -0.041565537452697754,
      -0.0036336034536361694,
      -0.055065665394067764,
      0.031716421246528625,
      -0.0856475755572319,
      0.017946183681488037,
      -0.024258039891719818,
      0.03205421566963196,
      0.005754166282713413,
      -0.04398370161652565,
      0.04585681110620499,
      0.024177322164177895,
      -0.07513369619846344,
      0.06723351776599884,
      0.06274741888046265,
      0.05499366670846939,
      -0.022468367591500282,
      0.018035631626844406,
      -0.058900605887174606,
      -0.03003428503870964,
      0.04171564429998398,
      0.03934767097234726,
      0.021675635129213333,
      -0.08429930359125137,
      0.05991458147764206,
      -0.05026807636022568,
      0.05496980994939804,
      0.07282767444849014,
      0.01943119987845421,
      0.0747130736708641,
      0.050754375755786896,
      0.03844817727804184,
      -0.05203361064195633,
      0.08197890967130661,
      0.002896767808124423,
      0.03887121379375458,
      -0.019985295832157135,
      0.06401268392801285,
      0.06504367291927338,
      -0.06772768497467041,
      0.05918153002858162,
      -0.058414943516254425,
      -0.0742039829492569,
      -0.08721798658370972,
      0.02554067224264145,
      -0.07971225678920746,
      -0.03327236697077751,
      -0.04443156346678734,
      0.012617912143468857,
      -0.10013432055711746,
      -0.045775607228279114,
      -0.012695606797933578,
      0.001682194764725864,
      -0.05326114594936371,
      0.031666338443756104,
      -0.05831456929445267,
      -0.08819367736577988,
      -0.012565724551677704,
      -0.04778701439499855,
      0.05571410804986954,
      -0.06041509285569191,
      -0.020770350471138954,
      0.036712415516376495,
      -0.07740511745214462,
      0.06836836040019989,
      -0.04016146808862686,
      -0.024051912128925323,
      -0.0674702376127243,
      -0.04638097062706947,
      -0.04732572287321091,
      -0.09200344234704971,
      0.016930948942899704,
      -0.013624945655465126,
      0.08646418899297714,
      0.059633515775203705,
      0.06353320181369781,
      0.023294735699892044,
      0.033141281455755234,
      0.06941065937280655,
      0.0725703313946724,
      -0.09805512428283691,
      -0.019819214940071106,
      -0.09855689108371735,
      0.00334380567073822,
      -0.044539276510477066,
      0.0633351057767868,
      0.000616206496488303,
      0.0009727925062179565,
      -0.07507896423339844,
      -0.06936106830835342,
      0.013914436101913452,
      -0.05724606290459633,
      -0.04059256613254547
    ],
    [
      1.137895941734314,
      0.8822073936462402,
      -0.46918800473213196,
      -0.1420886218547821,
      0.9551094770431519,
      1.029624581336975,
      0.026768267154693604,
      0.557091236114502,
      1.6553637981414795,
      1.7644973993301392,
      0.7305174469947815,
      0.6966184973716736,
      -0.9471300840377808,
      -1.8154566287994385,
      1.0126729011535645,
      -1.7358020544052124,
      1.4834064245224,
      1.0316476821899414,
      0.9735599160194397,
      1.423932433128357,
      0.9902154803276062,
      -0.07377413660287857,
      -0.07565945386886597,
      -1.8626779317855835,
      1.6312018632888794,
      1.0290499925613403,
      1.2919926643371582,
      0.031059719622135162,
      0.932549238204956,
      1.3474831581115723,
      1.0393216609954834,
      2.490111827850342,
      1.0205683708190918,
      -6.301361083984375,
      -0.07594568282365799,
      0.019046269357204437,
      0.7384135127067566,
      2.7551567554473877,
      0.028958939015865326,
      1.8996764421463013,
      1.1838663816452026,
      2.7098045349121094,
      0.6648985147476196,
      -1.0351542234420776,
      -0.04627765715122223,
      1.8754522800445557,
      1.0639727115631104,
      -0.1127517893910408,
      -0.789009153842926,
      1.2424333095550537,
      0.038404665887355804,
      1.638635277748108,
      0.9978333711624146,
      1.0182247161865234,
      0.5589920878410339,
      0.9599394202232361,
      0.05834788829088211,
      1.3516781330108643,
      -0.01798272132873535,
      1.3610115051269531,
      1.1257669925689697,
      -0.23588135838508606,
      -0.017906785011291504,
      1.2250055074691772,
      1.0616451501846313,
      -0.04996302351355553,
      1.3755748271942139,
      -0.5667218565940857,
      -0.055482711642980576,
      -1.449621319770813,
      1.2680789232254028,
      0.8485689163208008,
      0.957305371761322,
      1.0250900983810425,
      2.392470598220825,
      0.8475799560546875,
      -0.03319113701581955,
      0.8319717645645142,
      1.0716962814331055,
      0.005234196782112122,
      1.1208776235580444,
      0.05656353384256363,
      0.07274285703897476,
      1.7691375017166138,
      1.22581946849823,
      1.853131651878357,
      0.8931955099105835,
      1.7042778730392456,
      1.1435880661010742,
      -0.02830870822072029,
      0.26429393887519836,
      1.1407359838485718,
      -7.292185306549072,
      0.08063023537397385,
      -0.031313348561525345,
      0.7528744339942932,
      0.9917349219322205,
      -0.05630074068903923,
      -0.055255867540836334,
      1.3600144386291504,
      -0.05076349526643753,
      0.6616300344467163,
      1.5127543210983276,
      1.0142576694488525,
      1.1634067296981812,
      0.9833834767341614,
      1.5985584259033203,
      1.1297078132629395,
      1.5577592849731445,
      -0.046870697289705276,
      1.1877055168151855,
      1.7431607246398926,
      1.4888789653778076,
      1.3191524744033813,
      -0.02788092941045761,
      -3.9443483352661133,
      -0.07503256946802139,
      0.9197242259979248,
      0.910631537437439,
      0.848709225654602,
      1.498625636100769,
      1.1448843479156494,
      -0.03700214996933937,
      0.7446768283843994,
      -0.06078237295150757,
      1.0780506134033203,
      0.6204652786254883,
      0.05699477717280388
    ],
    [
      0.05907058343291283,
      -0.0058158994652330875,
      -0.0166526660323143,
      0.05861163139343262,
      0.027883000671863556,
      0.07266822457313538,
      0.0714012011885643,
      -0.05796150490641594,
      0.05454616993665695,
      0.03226928040385246,
      -0.07330464571714401,
      0.0424504354596138,
      -0.05697409063577652,
      -0.06736083328723907,
      -0.009420446120202541,
      -0.01957036927342415,
      -0.02376599609851837,
      -0.06704730540513992,
      0.03728771582245827,
      0.07433391362428665,
      -0.019585251808166504,
      -0.05955377221107483,
      -0.004557676613330841,
      -0.08662577718496323,
      -0.07950911670923233,
      -0.029444124549627304,
      0.04267056658864021,
      -0.06771555542945862,
      -0.025134915485978127,
      -0.045897431671619415,
      -0.09217991679906845,
      -0.01989717036485672,
      -0.0180368572473526,
      -0.01486169546842575,
      0.06462384015321732,
      0.03540503978729248,
      0.04913714900612831,
      0.01884281076490879,
      0.009273484349250793,
      0.04797358065843582,
      -0.06774499267339706,
      0.04503683000802994,
      0.042100585997104645,
      -0.04776587709784508,
      -0.0030335411429405212,
      -0.06686370819807053,
      -0.0882362648844719,
      -9.764730930328369e-05,
      0.006537431385368109,
      -0.031009910628199577,
      0.027307584881782532,
      -0.0813891813158989,
      -0.059429798275232315,
      0.050184573978185654,
      -0.08601707220077515,
      0.004691006615757942,
      0.06804775446653366,
      0.05470495671033859,
      0.030150897800922394,
      -0.0926922932267189,
      0.00011360457574483007,
      -0.040683966130018234,
      -0.024846822023391724,
      0.05593639239668846,
      -0.04149611294269562,
      -0.06330115348100662,
      -0.08493658155202866,
      0.053061291575431824,
      0.004264965653419495,
      0.08729807287454605,
      0.005231257528066635,
      -0.09169483184814453,
      0.014806563034653664,
      0.0709795132279396,
      0.05482106655836105,
      0.015511051751673222,
      -0.06640651822090149,
      -0.06394137442111969,
      0.0485621839761734,
      -0.059101566672325134,
      0.0077089471742510796,
      -0.011324584484100342,
      0.029617220163345337,
      0.005783431231975555,
      -0.07963833957910538,
      -0.04901311546564102,
      0.06606359779834747,
      -0.00212986022233963,
      0.033352479338645935,
      -0.04459216445684433,
      0.06997180730104446,
      -0.03046989254653454,
      -0.029792509973049164,
      0.017929978668689728,
      -0.03167072311043739,
      -0.041898827999830246,
      -0.02423003502190113,
      -0.00504612922668457,
      -0.05027120187878609,
      0.030212335288524628,
      -0.08566442877054214,
      0.054258354008197784,
      0.06922706216573715,
      0.0033677462488412857,
      -0.030977247282862663,
      -0.0918964296579361,
      0.027900032699108124,
      0.06157075986266136,
      0.07556544989347458,
      0.007881596684455872,
      0.01575213484466076,
      0.08469455689191818,
      0.0007795074488967657,
      -0.05435313656926155,
      -0.08391840010881424,
      0.024465009570121765,
      0.0344310998916626,
      0.06770721077919006,
      -0.05378412827849388,
      0.027997927740216255,
      -0.040850427001714706,
      -0.03312348574399948,
      0.05157341808080673,
      -0.09151311963796616,
      0.06515433639287949,
      0.03177640587091446,
      -0.062361955642700195,
      0.04510418325662613
    ],
    [
      -0.04113299027085304,
      -0.011045696213841438,
      -0.04005954787135124,
      -0.10333704203367233,
      -0.028137244284152985,
      0.026519933715462685,
      -0.010283701121807098,
      -0.056254785507917404,
      0.0028006359934806824,
      0.003295165253803134,
      -0.043678026646375656,
      -0.08509781956672668,
      -0.06373073905706406,
      -0.03125815466046333,
      0.01284287590533495,
      0.09286094456911087,
      -0.017767414450645447,
      0.013104337267577648,
      0.031810175627470016,
      -0.05783269554376602,
      -0.02932874858379364,
      0.05862850695848465,
      0.06328501552343369,
      0.005263095255941153,
      -0.08748654276132584,
      0.050168029963970184,
      -0.0919065773487091,
      0.04417847841978073,
      -0.008517942391335964,
      0.028550736606121063,
      -0.10517219454050064,
      -0.050698380917310715,
      0.018412666395306587,
      0.06803128868341446,
      -0.025304749608039856,
      0.07882028073072433,
      -0.03703230991959572,
      -0.07227499037981033,
      -0.03827599808573723,
      0.005500145256519318,
      -0.03469346836209297,
      0.042780302464962006,
      -0.06349876523017883,
      -0.04129018262028694,
      -0.08759400248527527,
      0.07214639335870743,
      -0.03566482663154602,
      -0.06967759877443314,
      -0.019996559247374535,
      -0.01910099945962429,
      0.024547934532165527,
      -0.029366178438067436,
      0.03700844198465347,
      -0.04720026254653931,
      -0.03957062587141991,
      -0.0374549999833107,
      0.015779972076416016,
      0.05193325877189636,
      -0.004067055881023407,
      0.04907083883881569,
      0.05043541267514229,
      -0.06250929087400436,
      -0.00759434700012207,
      -0.06069151684641838,
      0.01777265965938568,
      -0.031074605882167816,
      0.007715810090303421,
      0.007503593806177378,
      -0.05802389234304428,
      -0.059422969818115234,
      -0.10538020730018616,
      -0.06584873795509338,
      0.009357733651995659,
      -0.013664653524756432,
      0.06647705286741257,
      -0.09633629769086838,
      -0.002582862973213196,
      -0.0982397049665451,
      -0.018504662439227104,
      0.032203108072280884,
      -0.0983441025018692,
      0.07806038111448288,
      -0.02745262160897255,
      0.06728746742010117,
      -0.03391002491116524,
      0.035070959478616714,
      0.06138376519083977,
      -0.04911354184150696,
      -0.04047252982854843,
      0.04636228829622269,
      -0.09015253186225891,
      0.03334302455186844,
      -0.05551789328455925,
      0.08209186047315598,
      -0.05792665854096413,
      -0.05307426676154137,
      0.04693478345870972,
      -0.038483116775751114,
      0.07576218992471695,
      0.06079661101102829,
      0.08078796416521072,
      -0.08567323535680771,
      -0.01829005405306816,
      -0.04821859672665596,
      0.0025024106726050377,
      -0.085710808634758,
      0.017482535913586617,
      -0.02314694970846176,
      -0.04178017005324364,
      -0.07951447367668152,
      0.02714405208826065,
      -0.03198820352554321,
      0.04638801887631416,
      -0.003311749082058668,
      0.026882462203502655,
      -0.030623693019151688,
      -0.012243904173374176,
      -0.048878755420446396,
      -0.09275379776954651,
      0.036714158952236176,
      -0.07484149932861328,
      0.03248820826411247,
      -0.02981184422969818,
      0.03874235972762108,
      0.07575077563524246,
      -0.07063044607639313,
      0.05409080535173416,
      0.002154238522052765
    ],
    [
      -0.09106100350618362,
      0.012582541443407536,
      0.027049070224165916,
      0.05497989431023598,
      -0.10755272209644318,
      0.056527625769376755,
      0.06700784713029861,
      0.06411486119031906,
      0.028494063764810562,
      -0.042966730892658234,
      0.04337810352444649,
      0.05719057470560074,
      -0.05683104321360588,
      -0.037346042692661285,
      0.045895956456661224,
      0.04819420352578163,
      0.05838815122842789,
      0.04459962993860245,
      -0.06878729164600372,
      -0.03854995220899582,
      -0.05849522352218628,
      0.04593878239393234,
      0.02202747017145157,
      -0.09123451262712479,
      -0.01110260933637619,
      -0.09415394812822342,
      -0.10676094889640808,
      0.08057727664709091,
      -0.06784127652645111,
      0.03945033997297287,
      -0.04300907999277115,
      -0.017898574471473694,
      -0.022750962525606155,
      0.06893650442361832,
      -0.012227296829223633,
      0.07313831895589828,
      0.029016030952334404,
      0.060635171830654144,
      -0.08016295731067657,
      -0.04132997989654541,
      -0.09533116966485977,
      -0.018772676587104797,
      -0.04128801077604294,
      -0.0050579155795276165,
      0.0791933611035347,
      0.03967798501253128,
      -0.08490987867116928,
      -0.055432166904211044,
      0.043769124895334244,
      -0.014734186232089996,
      0.024970129132270813,
      -0.06885337829589844,
      -0.03436911106109619,
      0.0020601763390004635,
      -0.0805143192410469,
      0.03443743661046028,
      0.04404781013727188,
      -0.07479823380708694,
      -0.03624637424945831,
      -0.044218242168426514,
      -0.009501718915998936,
      -0.05539536476135254,
      0.08455415815114975,
      -0.10852653533220291,
      -0.0732995793223381,
      -0.05364982783794403,
      0.002992484252899885,
      -0.010469276458024979,
      -0.025186799466609955,
      0.052598051726818085,
      -0.10007001459598541,
      0.008103991858661175,
      -0.07215157151222229,
      -0.04325549304485321,
      -0.08511801064014435,
      -0.08950405567884445,
      -0.07499302178621292,
      0.015198520384728909,
      -0.056677889078855515,
      0.04623601585626602,
      -0.07164888083934784,
      -0.021899498999118805,
      0.010699145495891571,
      0.0740627720952034,
      -0.047018248587846756,
      0.029005777090787888,
      0.0011054502101615071,
      0.03143725171685219,
      0.03254718706011772,
      0.035869404673576355,
      -0.049008067697286606,
      -0.04820840433239937,
      0.034409694373607635,
      0.048175401985645294,
      -0.004717588424682617,
      0.021316582337021828,
      -0.07683530449867249,
      0.049820803105831146,
      -0.010846562683582306,
      -0.0608263723552227,
      -0.04294648766517639,
      -0.06750202178955078,
      -0.005220158491283655,
      -0.07566050440073013,
      -0.04830949753522873,
      -0.02873961254954338,
      -0.07711194455623627,
      -0.020886536687612534,
      -0.011217594146728516,
      0.027996309101581573,
      0.0396508127450943,
      -0.0533573180437088,
      0.025081690400838852,
      -0.025097472593188286,
      -0.05051879212260246,
      -0.06303629279136658,
      0.02249819040298462,
      -0.005013505462557077,
      -0.025265458971261978,
      -0.06724511086940765,
      0.032618969678878784,
      -0.010154057294130325,
      -0.08592505007982254,
      -0.03890242055058479,
      -0.023980863392353058,
      -0.06089241802692413,
      -0.07292892783880234,
      -0.0717061385512352
    ],
    [
      0.08705403655767441,
      -0.0807352066040039,
      0.08216380327939987,
      -0.06948241591453552,
      -0.02144455909729004,
      -0.03620975837111473,
      -0.04730985686182976,
      0.03142519295215607,
      0.05122942477464676,
      -0.05806245654821396,
      -0.04116683825850487,
      0.045115791261196136,
      -0.01068403571844101,
      0.021526895463466644,
      0.04621409624814987,
      -0.03267113119363785,
      -0.04905322939157486,
      0.032535478472709656,
      -0.03236737847328186,
      -0.05883495509624481,
      -0.04458446428179741,
      -0.0410974957048893,
      0.08800990134477615,
      0.01699914038181305,
      0.03806643933057785,
      0.011872746050357819,
      -0.05958666652441025,
      0.06378438323736191,
      -0.01373986154794693,
      -0.022886477410793304,
      0.07203268259763718,
      -0.045025963336229324,
      0.01794799417257309,
      -0.07519051432609558,
      0.04529222100973129,
      0.035108841955661774,
      -0.07268140465021133,
      0.04933280497789383,
      0.00972706824541092,
      -0.04564064368605614,
      0.07536286860704422,
      0.03796044737100601,
      0.031061097979545593,
      -0.03282969817519188,
      -0.04846513271331787,
      -0.04755953699350357,
      0.03320780396461487,
      0.02381061017513275,
      -0.052900224924087524,
      0.08042915910482407,
      0.051496587693691254,
      -0.033747348934412,
      0.04573030024766922,
      -0.03746767342090607,
      0.02773871272802353,
      0.07356853038072586,
      -0.07818231731653214,
      -0.043947309255599976,
      -0.004995331168174744,
      0.013180963695049286,
      -0.0726882666349411,
      -0.05815083906054497,
      -0.008465707302093506,
      -0.012743644416332245,
      0.019064880907535553,
      0.011231325566768646,
      0.01813216507434845,
      0.00585956871509552,
      0.010159105062484741,
      -0.0051016658544540405,
      0.03174225240945816,
      0.060324735939502716,
      -0.04411022737622261,
      -0.0457896962761879,
      0.03879498690366745,
      -0.06391659379005432,
      0.05743987113237381,
      0.040833525359630585,
      0.012783780694007874,
      -0.038372986018657684,
      0.0026503726840019226,
      -0.06988457590341568,
      -0.07952137291431427,
      0.08323561400175095,
      -0.07927782833576202,
      -0.07334057986736298,
      -0.0343342125415802,
      0.0049636587500572205,
      0.020243942737579346,
      -0.043556228280067444,
      -0.008577108383178711,
      -0.019737981259822845,
      0.07395678013563156,
      0.07671702653169632,
      0.03632841259241104,
      -0.0005448311567306519,
      0.0662853792309761,
      -0.07136336714029312,
      0.036930181086063385,
      -0.05137641727924347,
      0.06893067806959152,
      -0.0781342163681984,
      0.03284092992544174,
      -0.07267144322395325,
      0.05158769339323044,
      0.016161777079105377,
      0.07584062963724136,
      -0.06666402518749237,
      0.05688754469156265,
      -0.058987148106098175,
      -0.04771071672439575,
      0.03361910581588745,
      -0.014877818524837494,
      -0.06978552788496017,
      -0.07521079480648041,
      -0.022947832942008972,
      0.024472787976264954,
      0.07763632386922836,
      0.06500580161809921,
      0.0014485642313957214,
      -0.05421687290072441,
      -0.07880298048257828,
      0.07896628230810165,
      -0.049280453473329544,
      -0.015545077621936798,
      -0.07132187485694885,
      -0.061094995588064194,
      0.01715046912431717
    ],
    [
      1.1628707647323608,
      1.026445984840393,
      -0.4387204349040985,
      -0.2170620709657669,
      0.9615461230278015,
      1.0660209655761719,
      0.038419581949710846,
      0.4466520845890045,
      1.743764877319336,
      1.6428686380386353,
      0.6782275438308716,
      0.6216718554496765,
      -0.9795542359352112,
      -1.6387790441513062,
      1.0745692253112793,
      -1.6662821769714355,
      1.6872849464416504,
      0.8730632662773132,
      1.0946075916290283,
      1.5292567014694214,
      0.8216660618782043,
      0.005159050226211548,
      -0.08534472435712814,
      -1.9531879425048828,
      1.8705142736434937,
      0.8179309964179993,
      1.375955581665039,
      -0.07209610193967819,
      1.0309783220291138,
      1.3220348358154297,
      1.0213710069656372,
      2.6462607383728027,
      1.140588641166687,
      -6.9446611404418945,
      -0.04877205938100815,
      -0.060697995126247406,
      0.651364803314209,
      3.0096435546875,
      0.002153344452381134,
      1.7486764192581177,
      1.2184770107269287,
      2.828091621398926,
      0.5041988492012024,
      -1.2430124282836914,
      -0.11225941777229309,
      2.040074110031128,
      0.9263478517532349,
      -0.07525330036878586,
      -0.8420137166976929,
      1.3679507970809937,
      0.04376513510942459,
      1.6240806579589844,
      1.0435343980789185,
      1.0968682765960693,
      0.3938177227973938,
      0.7994675040245056,
      0.026803158223628998,
      1.4329752922058105,
      0.06905511766672134,
      1.4056601524353027,
      1.068480134010315,
      -0.2857544720172882,
      -0.03930991142988205,
      1.2578473091125488,
      1.155584692955017,
      0.058241091668605804,
      1.516525149345398,
      -0.6000392436981201,
      -0.06909463554620743,
      -1.5916244983673096,
      1.4919061660766602,
      0.8065939545631409,
      0.9525702595710754,
      0.9163878560066223,
      2.3659605979919434,
      0.8891055583953857,
      0.046565137803554535,
      0.9489624500274658,
      1.202725887298584,
      0.006292715668678284,
      1.0873101949691772,
      -0.05218154937028885,
      0.08590053766965866,
      1.935991883277893,
      1.3221324682235718,
      1.8025147914886475,
      1.06725013256073,
      1.683742642402649,
      1.2068284749984741,
      -0.07334107905626297,
      0.3012964725494385,
      1.1407097578048706,
      -7.84243631362915,
      0.022130712866783142,
      0.043162502348423004,
      0.5689693689346313,
      1.0326505899429321,
      -0.07527763396501541,
      -0.08372122794389725,
      1.2342228889465332,
      -0.053796615451574326,
      0.47016942501068115,
      1.4436581134796143,
      0.9162908792495728,
      1.066231608390808,
      0.9945529699325562,
      1.6799770593643188,
      1.1420155763626099,
      1.4696824550628662,
      -0.04705043509602547,
      1.2850358486175537,
      1.7538695335388184,
      1.525651454925537,
      1.3655309677124023,
      -0.06184668466448784,
      -3.968991994857788,
      0.07166207581758499,
      0.8194575309753418,
      0.6926871538162231,
      0.8673799633979797,
      1.3995227813720703,
      1.1178061962127686,
      0.03755678981542587,
      0.8515372276306152,
      -0.010029412806034088,
      0.829342782497406,
      0.7871243953704834,
      0.0685289204120636
    ],
    [
      -0.06561758369207382,
      -0.0039049237966537476,
      -0.06393807381391525,
      -0.04513279348611832,
      0.029745012521743774,
      0.04129386693239212,
      0.03654966503381729,
      -0.08325159549713135,
      -0.021427690982818604,
      0.03767051547765732,
      -0.008204348385334015,
      -0.02732546627521515,
      -0.04565726965665817,
